digraph Tree {
node [shape=box, style="filled, rounded", color="black", fontname="helvetica"] ;
edge [fontname="helvetica"] ;
0 [label="credit_rating <= 0.5\ngini = 0.5\nsamples = 6\nvalue = [3, 3]\nclass = kauft nicht", fillcolor="#ffffff"] ;
1 [label="age <= 0.5\ngini = 0.375\nsamples = 4\nvalue = [1, 3]\nclass = kauft", fillcolor="#7bbeee"] ;
0 -> 1 [labeldistance=2.5, labelangle=45, headlabel="True"] ;
2 [label="gini = 0.0\nsamples = 1\nvalue = [1, 0]\nclass = kauft nicht", fillcolor="#e58139"] ;
1 -> 2 ;
3 [label="gini = 0.0\nsamples = 3\nvalue = [0, 3]\nclass = kauft", fillcolor="#399de5"] ;
1 -> 3 ;
4 [label="gini = 0.0\nsamples = 2\nvalue = [2, 0]\nclass = kauft nicht", fillcolor="#e58139"] ;
0 -> 4 [labeldistance=2.5, labelangle=-45, headlabel="False"] ;
}